-0.25631989432214985 1.1338802663550438 -0.8057979982951282 -1.260647882116046 -0.11957523647888835 -0.29242512519751895 -0.23239646318025572
0.20305380645108478 0.3880621109786617 0.30788005754921927 -0.029607793205623734 -0.189571944804205 0.3713492400552062 0.29173901238486516
0.09499965712910796 0.20404013071573993 -0.5856430523052595 -0.13625498960480742 -0.05743431347349426 0.47484062807584293 -1.1520159169601571
-0.5530611333481779 -0.4453679333308037 0.8982837132435458 -0.6311219634618194 -0.2738034120167595 0.816865347095147 -0.9892274110351199
0.0570897872014377 -0.7888328215439179 0.8852265855682645 -0.2741365962875586 -0.5546068691270138 0.9416110839479879 -0.1960786587192729
0.37444043653346226 -0.3421021745509246 0.6540041961638985 -0.32563314807886773 -0.2561288883629422 -0.8420744340611251 0.1424765537282902
0.06456632997671158 0.15918701086004733 -0.1026896117694671 -0.12995728666054457 -0.49660276742737186 -0.42350649875101964 0.17360803547384884
0.2101726026634204 1.1026001160445469 -0.37562998739400943 0.25722625354735723 0.9166535107777587 -0.23216145502124258 -0.6427896866345408
-0.5515215959739971 0.5078292519278782 0.41679516578076786 0.4230373167070309 0.4098981251316681 0.5549484662303831 -0.11273504930141431 -0.23162762981325885 -0.49647518104758537
-0.6465958452620697 -0.6496047436824188 -0.08116928981377876 -0.12957855908747196 -0.10823522569549063 -0.5536203315729448 -0.1928416289790295 1.1481419543799882 -0.595697552446307
0.7901906412997957 1.3366175855519273 -0.9024223540070893 -0.525304066805106 0.6647704053745834 0.3221041264226452 0.35820833186532436 0.07995130959128241 1.2764088478726041
