0.24428239780137356 0.3069266719369025 -1.2639159169882521 0.37950358442188437 -0.6777943390311887 -0.062447211471241465 -0.08328035962101302
-0.19221352450494783 -0.3125269412032045 -0.20826054645179032 -0.3185214237629955 -0.3876135933472152 -0.29389704564762725 0.1941315607974251
-0.35513286932928356 -1.1486631557128781 -0.9443652675994577 -0.028262970762205852 0.12295672192108587 0.09647038100698085 -0.2209949729441622
0.05603570667446678 0.8365497212361511 0.21134847045601085 0.2705917786911961 0.29256976297232506 0.2418480544020271 0.2948309432166493
0.5385133212413207 0.504206553870075 1.1305065621720676 0.2414129672915251 0.7495244455380269 0.08246554479831607 -0.251944179752226
-0.36108422907097604 -0.40359317794788063 -0.35877598808488576 -0.0019412827332539878 0.3653771376243773 -0.7926306186236558 -0.4008363126931126
-0.3487985617441087 -0.13375714723109727 0.25528057926791037 -0.34172847572112763 0.48922053137267263 -0.17828386863889834 0.2077429558931786
0.611352274668948 0.6711322670356554 0.4281704830644811 0.3806202270088051 -0.11500440128166332 0.8769795539228963 0.054702291366892086
0.5626735497480416 -0.6694821539098575 -0.6016799972350676 -0.8438888064440546 0.23845010458253452 0.3274602852979226 -0.5309466343533681 0.6805398469866221 -0.4238194109881198
0.024435871402444298 -0.22073486344685012 -0.6932698005433087 -0.3280904223722127 0.49925023816473046 0.2206983491478952 0.40014066390134173 -0.04570804886588936 -0.35832462771450824
-0.36937561475224423 0.20381514030133321 -0.00382151450633772 0.21793839921682512 0.0546785969848647 0.2592304601330262 -0.23603475378546976 0.0993375204735078 0.13021964305599285
