0.5028336697179361 0.4233807695098649 -0.03413854216328165 -0.14979445965358293 -0.47080800215767116 -0.22318715679327578 -0.14696005649528088
-0.30134954557725174 -0.20760664375429727 -0.09285853812255282 0.7325475339482768 0.6394554213940783 -0.20741955968706208 -0.032535398564892425
0.049203098661606645 -0.39034003266570344 -0.4043068816021214 -0.46494646148595153 -0.2674414325493976 -0.6963461770376274 0.028325628315614526
-0.7219273907988305 0.08684159325326996 0.21741339941025425 0.2649518458834093 0.5370793780476958 -0.37994018995302564 -0.09939299460775877
0.1257061362906033 -0.7003829310127963 0.1852613474650812 -0.17364764651559944 -0.15756963399462331 0.07099238336422373 0.02234644288977289
-0.12888660723979906 0.44549736938131473 -0.04705788804638658 -0.3391331477395639 -0.04954334466317814 -0.0172097951889576 0.17129358186339255
-0.46591964997721935 0.3049802479318311 0.4211609115518528 0.12118089662499185 -0.035476761931643785 0.26129751179712424 -0.67331104172168
-0.7506978003430467 -0.5849463073660666 0.36495607758102044 -0.20665977399227853 0.37771490073748926 0.026249034166464763 -0.11966907253953513
0.37421451604740796 0.2951516665490459 -0.5802282280810498 -0.5308540843536367 -0.26108445986024015 -0.5303032374229059 0.21608027311934108 -0.1607702378915687 0.2892569257995118
-0.47863640770489824 -0.17402953389904807 -0.6365287732901358 -0.10219617805579823 0.042627269380985405 0.015134230259250425 0.4677175958030526 -0.6356932947771035 -0.6040276882646837
-0.20417460903695184 0.653923777446747 -0.31411099124332853 -0.12893706007743455 -0.8598863295586874 -0.20366947316750653 0.08370192942377212 0.18989027903031497 0.37733193784338004
