1.0058990642190098 0.15111353659236026 0.2727683974664283 -0.07376188183643353 -0.5154374948537535 -0.3218526348434232 1.0181522495039848
0.3925848111981873 -0.8790900050867312 0.38507184644549386 0.7774152351102689 -0.7973678161287494 0.1056525305044453 0.11119102602697656
-0.32153050931095756 0.3432712137921284 -0.604513653738589 -0.05803774135149352 -0.1919414669333194 -0.2364612363289565 0.2360181930995649
0.2949620016326172 0.4939096546908841 -0.08971879381293896 -0.4011531677054558 0.3240495512899148 -0.03329822224008086 0.1346474453544529
-0.19705788036066046 -0.3875660888026002 -0.3155275295462657 -0.2875450796980299 -1.0945088136851144 0.41098559572970034 -0.44037614054312063
0.15857873534025255 -0.07338654085195298 -0.10620250102235425 -0.15001065107109063 -0.788027772920556 0.27725805075360643 0.4552464177898108
0.08092870440297514 0.37858651686170197 -0.36381877097874477 0.7012943813531641 -0.03300202086368781 -0.07926990075372264 0.6270477553866822
-0.053127484417440696 0.1439055168395761 0.060250502686846924 -0.26863913374659115 0.7740348740890459 0.6360548443404072 0.08766663297724067
0.5427217025333926 0.05309217548560559 0.35635958087370256 0.6098736166713717 0.9137162272319068 -0.29776598163183077 -0.7849731893568433 -0.2820582676060163 -0.3338638238861491
-0.2967638528525872 -0.06622961870469254 0.6298106550946238 -0.005307949864966982 0.9237550874647991 0.1316425432801141 -0.7780018855145246 -0.21781038902776995 -0.13065401720553463
0.6251256019730125 0.13586685158310172 0.08215258153433552 0.6743700322923439 0.26727007188838675 0.34789921271249913 0.4882903116391275 1.5323833002420337 0.27863184505419863
