-0.003327199537065756 0.5208198595753193 0.6035449525435492 -0.4405647450424911 1.253201524336647 -0.13177236522971542 0.18234947242498578
-0.5171262899233151 0.3245222323324194 0.24329911176599678 -1.1057185296328522 1.0489077795775712 1.070393292496463 -1.332160466946494
-0.41214449829903743 -0.7899628189183423 -0.07842272975875034 0.36387211320675905 0.5509192387435852 -1.4258293512168354 -0.5489471086667019
0.43792704403673977 0.5210254238997489 -0.3172127911366369 -0.029067563080703296 0.4668646814603707 0.31265955028798703 0.29326965107006847
1.3366183818472595 0.10613876177797205 0.14058140213819015 -0.3814986349057081 0.5885475630460097 0.8764167476769689 -0.9906095095381912
0.34153960015037454 0.12669418130344084 -0.01798632720806409 0.6538635615316197 -0.7576558455603857 0.3251694615540553 0.028139798780908637
0.18705425947346765 -0.33234963438073084 -0.25543219787299276 -1.2574741029204781 0.3627515875233873 1.7692612158159446 -0.38840995167392006
-0.8002192781002895 -0.33605703511476365 -0.4741040890993224 -0.17663088571691277 -0.5631776359576407 -0.8025316398308467 -0.4482583463724376
0.10973367551683816 -2.1004169398150347 0.4385846348443101 1.2673415622333695 -1.01225262492343 -0.3783545995782317 -0.2568943748595052 -0.21626224680571776 -0.4961785675725089
0.5971984339103855 -0.7540633934757843 0.6382231661535461 -0.18342003245731167 0.15427273071469003 -0.29525560737214723 0.10711920485531015 0.16031155197893945 -0.5377561880776113
1.5186600113166484 -0.21447003750836835 -0.9525439660557081 -0.34945395091067116 -0.7101224085154805 -0.3208624815257996 0.6818765056122758 -0.2456030696118356 -0.3744518041563023
