0.8228064062277082 0.33143994111327396 0.6554485990905677 0.5090389575706129 0.47698533882338773 0.07569501507816276 -1.5434083440557607
0.6554069886427134 0.253135831024116 0.133306651804522 -0.8093703925326908 -0.2244860773817863 -0.17940520724362963 -0.2466493479514544
0.3636053904186739 1.254680082747522 1.4658423985135245 0.8550571144004171 -0.15607529827543326 -0.6107140615605613 0.43056539686330775
-0.19855714695866802 -0.5794542953979924 -0.06743670464328413 1.4222076661210854 -1.2293732305898395 1.997104440893496 1.5829697979836381
0.22324137849575157 -0.17216731961099319 0.569592352499896 0.5357522698942881 -1.1084606864714124 0.8167777391439865 0.40557693574825127
-0.21145083326017666 1.5569803515998948 0.3997102529110689 1.7127328556180441 0.5016649954978246 1.3411668135731798 -1.274066491919021
-1.3070796838343328 0.8091316902225116 -0.19720019094487815 -0.08662127377260503 -0.7976959780286508 -1.3382415778901573 0.3474270232000592
-0.025461644447466333 -0.8069565032913204 -0.5738767796188303 -1.224540381004651 0.7499762660695977 0.5871715581757853 0.6704878414277318
1.518772216584051 -0.287034402265358 1.9371278230426703 -0.7349248096637925 -1.0242920067970034 0.7098878736111098 0.26123420229666194 -0.5058441740614308 0.271145643245443
-0.7743826554525605 -0.06599010450732881 -1.8962368812297703 -0.3462558638479676 -1.3521955426674193 -0.7958965965054674 1.5160081212507035 0.9318938455796012 -0.025269881920915824
0.14362985697346833 -0.8749328498761637 -1.0759283178751404 -0.06843227667344237 0.17203119051549734 -0.6221278624840526 -1.5910547648529703 0.016889553853323948 0.41251121976542776
